#include "nn_params.h"
float fc1_wt[N_FC1_WT] = {-1.9504252e-11,6.162512e-05,-0.12821941,0.05746092,-0.058268286,-0.061051387,-0.08877098,1.2865121e-20,-5.8235917e-05,1.8305787e-22,-5.07125e-10,-0.021787073,7.618284e-06,-0.0041184104,0.0020351596,0.0045777364,-0.18583907,-9.850724e-05,-0.0076714186,1.23324e-08,-5.614644e-08,-0.04681446,1.623302e-06,-0.010945976,-0.1523113,-0.073003925,0.037952963,0.066236414,-0.008426044,8.839274e-28,-0.05310507,6.3672573e-28,-0.030234449,0.024674173,0.0071065845,0.018896623,-0.13742958,0.008872422,-0.015387286,0.011177295,0.02561864,0.071891576,-0.020178765,-0.087168746,0.11000746,0.043484695,0.0042111413,0.028499404,0.024360504,0.055399023,-0.027917992,0.028205749,-0.067307904,-0.006360651,0.15419656,0.14450513,0.00598558,0.023532806,0.09682379,-0.014479304,0.021005224,0.014951643,0.118679725,0.01769653,0.037854124,0.011422663,0.10930492,0.036160957,0.0325592,-0.009225319,0.054980822,0.056560904,-0.16886948,0.11277333,-0.15198116,-0.19069652,0.11716929,0.11308896,-0.1420807,-0.065378964,-0.1620195,0.060564365,0.06113684,0.14050213,-0.03498531,-0.007072494,0.06303357,0.001573802,-0.046952754,0.004514909,0.049335737,-0.096622,-0.02416047,-0.069983184,0.16113885,0.12403446,0.06669076,0.061999023,0.08329066,0.07283922,0.046548992,0.056245252,0.12691383,0.06578319,0.089366645,0.040756166,-0.030746292,-0.035080377,0.07266261,0.16932502,0.01925442,0.07698844,0.043778427,0.15842333,0.11262927,0.12049745,-0.0410934,-0.00317495,-0.08465886,0.06944097,0.01609463,0.07307877,0.042299207,0.028533481,0.03853448,0.044797648,0.025352033,0.08731931,0.008279223,-0.0011497593,0.08724609,-0.05760393,-0.009329092,0.09398402,0.058195487,0.044935472,0.043090615,0.002569005,0.23417638,-0.036118526,-0.0032351706,0.1545183,-0.18873306,-0.062366676,0.045055844,0.0056126704,0.0529738,-0.011286965,-0.06320297,-0.23746908,0.20014599,0.10384274,0.010905526,-0.10374554,0.21657974,0.17492867,0.041966278,-0.10929228,0.23867008,0.22386259,0.043523535,0.2045556,0.19384588,0.047065742,0.037532218,0.0076982374,0.051765114,0.056978058,0.037826646,0.036184106,-0.01799131,0.15020654,0.041129746,0.18767428,-0.034634255,-0.043581028,-0.030904043,-0.14510648,0.05862773,0.083829924,-0.023081243,-0.08767622,-0.00090097333,0.008858687,0.015423734,0.19810279,0.24560356,-0.056670208,0.020024052,0.0042613754,0.2124328,0.20881274,-9.469738e-05,0.08594164,1.0085821e-28,-0.047173873,-0.001317866,-0.060037363,-0.12134576,-0.058872428,-2.5903788e-07,0.11729682,-0.008455756,0.0042118905,0.013853583,0.0077632777,-0.036099747,0.008286413,-0.00039462204,0.0047670826,-0.021541925,-0.00033957293,-3.247481e-06,1.1083158e-29,0.031303253,-0.019244565,7.26662e-05,-4.117294e-15,0.0398339,2.3865047e-25,-0.16519427,0.03331494,-0.0017483233,-0.1767337,0.17324123,-0.00023615842,-0.0002836402,-0.00025710202,0.07518636,-0.00720731,-0.0002116658,-0.00023700294,-0.00065453874,0.12784487,0.033034585,0.008420841,-0.01116447,-0.0005874434,0.00334337,0.022555128,-7.4299445e-05,-0.09739559,-0.049745828,-0.00078451284,-0.033725455,-2.785495e-05,-0.11616899,-0.085600585,-0.0029826658,-0.10892755,0.0048995833,-0.00017255051,0.1937281,-0.0004394628,0.093673356,-0.00028648213,-0.006561668,0.024449475,-0.004970298,-0.0015842265,0.10712966,-0.0058015017,0.09227439,0.058575094,-0.007572457,0.11373786,-0.001735688,-0.016003812,-0.008903913,0.07258384,-0.036406334,-0.045220133,0.0017453165,0.07563518,-0.014246427,-0.022709742,0.21709709,0.16421881,-0.11115691,0.08622774,-0.019748077,-0.023500407,0.03540782,0.04015284,-0.00080813834,-0.023768798,0.07677494,0.05771151,0.0022239543,-0.0066173575,0.06501304,0.100739084,0.012600179,0.017380511,-0.021233944,0.09151521,-0.050556786,-0.011299113,0.06865182,0.21508309,0.0014745252,0.13907935,-0.022619553,-0.06710811,-0.07265954,0.025788201,-0.17202114,0.050391622,0.061959688,0.081261896,-0.092906505,-0.0024284397,0.0012587416,-0.0435815,0.22077397,0.106267065,-0.08114899,-0.029254781,0.03819468,0.13969769,0.04746119,-0.19593766,-0.0070083053,-0.00017359192,-0.002760778,0.09757583,-0.015695924,-0.11027548,-0.003735499,0.00019418483,0.011591999,0.0679891,-0.005888282,-0.1388303,0.03230718,-0.009242498,0.009012019,0.0073148035,-0.0321887,-0.0023836375,-0.015731527,-0.104689136,-0.11395666,0.016175471,0.0013841153,0.06778539,0.00033978402,0.032082994,0.004082534,0.15754224,0.07097503,0.0015396372,0.01912901,0.02003575,-0.047079667,0.008171843,0.17697328,0.10133087,0.12889168,-0.012121423,-0.024938162,-0.037756894,-0.28033155,0.026415609,0.028030217,0.121619344,0.1547193,0.038039844,-0.087046094,0.04633335,-0.090037376,0.07340813,0.10497666,0.14238903,-0.02064722,-0.17301394,-0.1154444,0.030849408,-0.2652637,-0.07354717,-0.010581161,0.11938658,0.0028165344,-0.13726206,0.011799332,-0.009008951,0.049597297,0.025693728,0.021740867,0.055985685,0.051210575,0.036585007,0.056568775,-0.039263427,0.0033958515,0.21470045,0.014215036,0.022733362,-0.018992515,-0.11957461,0.03273803,-0.016959669,0.01194784,-0.09235878,0.1303745,-0.0874658,-0.06272345,-0.0102575235,-0.0019879348,-0.16371071,0.16257088,0.18129525,0.18041554,-0.011008775,0.06850029,0.13983774,-0.024089897,-0.007810787,-0.10045707,-0.13192129,0.0137492,-0.16279748,0.047083512,0.08018553,-0.13197345,0.11398124,-0.07476401,-0.10350332,0.0032406724,-0.018516779,-0.041265924,0.117224805,0.0086733615,-0.07533119,-0.0007542323,0.034363974,0.01671449,-0.04924034,0.22733112,0.050611414,0.014309224,-0.03553638,-0.18280503,-0.27524787,0.13897859,0.011187958,-0.10698612,-0.26232108,0.0011080364,-0.074200965,0.029620519,0.014197944,0.07564719,0.07931686,0.00046263766,0.017324902,0.06267906,-0.0073387343,0.027424889,0.01674602,0.03781502,0.015003918,0.10210195,-0.012684404,0.14483845,0.081227094,0.16305022,0.03550718,0.018170862,-0.04109272,-0.0891175,-0.013282705,-0.044861995,-0.0091385115,0.0071738106,0.0141342385,-0.017386226,-0.04658046,-0.05087485,-0.091878965,-0.022649633,0.03203557,0.086730585,0.021925496,0.015938709,0.028713232,-0.03246883,0.057703294,0.040809542,0.048060197,-0.11176115,-0.14199497,0.040201303,0.013462764,0.084254496,0.23189098,0.013247382,0.037510097,0.043716412,0.053834416,0.09101868,0.20619547,-0.019593762,0.022218809,0.0049829893,0.066648535,-0.08265093,-0.055309597,0.0014528792,0.06476858,0.0097600045,-0.08083522,-0.009085792,-0.009592899,-0.003549338,0.003485255,-0.028320167,-0.047093254,-0.15203406,-0.02714707,-0.13320799,0.08982202,0.019003099,-0.18556364,-0.038589876,0.053532995,-0.11256014,0.04525776,-0.023075499,-0.019426748,0.055454947,0.11758638,-0.07180315,-0.24603401,0.10115296,-0.006479437,0.064129904,0.045015037,-0.0021228257,-0.11556748,-0.03654885,-0.119605854,-0.06565863,-0.049016286,0.18552727,0.022052716,0.18807213,-4.0999763e-07,0.1487758,0.10442263,-0.17368016,0.00014086213,-0.023524025,7.873233e-05,-0.16406572,0.044783264,0.0018209985,0.003919485,0.00013503458,1.4115864e-07,0.00087777886,0.09929224,-0.12526207,-3.284613e-07,-1.6179764e-07,-0.17714027,-0.0011408732,-0.0033176446,-5.039095e-08,1.3048654e-07,1.1469266e-06,-0.13037613,-0.0007599504,8.164327e-06,-0.076994665,0.02448653,-0.07728385,-0.0103437,-0.051814042,-0.05223827,0.025445268,0.026252678,-0.08019599,-0.05000801,0.007502156,0.06654739,0.18091817,0.15884972,-0.027805327,-0.1764195,0.10898027,0.034353413,-0.10703476,-0.03231917,-0.069163814,-0.000941072,0.009522926,0.09106001,-0.022618605,0.009868812,0.024375984,-0.013017375,-0.07088681,-0.057175156,0.0014225583,-0.15008734,0.1436648,-0.20804755,0.04042373,0.13250533,0.15228355,0.17965125,0.029848712,0.044191793,0.015796855,0.043871775,0.043406434,0.001980881,-0.0076381275,0.013535639,0.20221928,0.058510624,0.07833488,0.044141278,-0.12189609,0.082265295,0.071352296,0.056323264,0.06881937,0.04357658,-0.08397114,0.01096356,0.056899007,-0.09432156,0.025101503,0.03826649,0.028293619,0.038272128,-0.019203717,0.18711154,0.0377848,-0.08113834,0.18157947,0.03014287,0.025511295,-0.011512783,-0.07044385,0.048044436,0.014439243,0.038140737,0.036989477,-0.06755125,0.021988235,0.074450925,0.05003534,0.01573545,0.14493777,0.019208994,0.08416974,0.013662789,-0.008924243,-0.06614105,-0.11185213,-0.014640241,0.005046404,0.018410482,0.05708922,0.019539451,0.050262254,-0.058544725,-0.012991045,0.090318345,0.007119388,-0.0018410411,0.061674245,-0.08036033,-0.0031411224,-0.06130594,0.11028069,-0.0025281485,0.024285672,0.21929677,-0.019527934,-0.14583194,0.10735715,0.18569191,-0.066384025,0.14517538,0.0022645767,0.042595584,-0.053728253,0.08366004,0.06316627,-0.085036695,0.2886861,0.07363981,0.017170914,0.15645416,-0.09504827,-0.29280978,0.018321553,0.15933904,0.2557653,-0.21853173,-0.0582434,0.1449872,-0.017485486,-0.07461945,0.11477223,0.015622493,-0.13588835,-0.062680066,-0.06735697,-0.061101258,0.33141014,0.33835724,-0.04846857,-0.1281603,0.09848995,0.16196474,-0.020724125,-0.14530702,-0.0012133268,0.028392823,-0.078230724,0.115618914,-0.16805011,-0.023629934,0.014692062,-0.011001513,-0.042539734,0.08200416,-0.102576405,0.0663237,-0.3378321,-0.043807484,0.01241221,-0.051677134,0.090228856,-0.0080344705,-0.035913065,0.062204607,-0.008629687,-0.013953598,-0.0012707653,-0.0063910885,0.20105174,-0.099107414,-0.023137089,-0.052346878,0.04684189,0.10612696,-0.0011547232,0.061793834,-0.09978123,0.009607456,0.010669578,0.024197698,-0.021707617,0.09255955,-0.02687152,0.029368008,-0.037649795,0.039763574,-0.0885564,0.09724678,-0.17607069,-0.06398857,-0.06243301,-6.262753e-17,0.020929746,-0.009634354,-5.2239704e-07,-0.13277447,-0.011237492,0.14568496,0.06987391,2.8161806e-18,-0.12593313,7.292816e-09,-0.14449985,-2.8891182e-29,0.05532175,-2.6459042e-09,-1.3478849e-06,0.0019251673,6.325021e-28,3.8465663e-12,-4.3454098e-11,-6.203165e-06,-0.015403398,4.9437405e-09,-0.0072662914,-0.0034659437,-7.4489915e-29,-2.1976184e-07,0.0858404,-2.9824625e-07,-0.037647787,-1.2109173e-06};

float fc1_bias[N_FC1_BIAS] = {-0.7798557,-0.11806501,0.44720298,-0.37881997,0.028911138,-0.26800823,-0.5126102,-0.38547707,0.32022196,-0.0390641,1.1495777,1.0118427,0.57338405,0.69380766,0.005469307,0.095937826,0.9306368,-0.37729427,0.72146773,-0.3176871,0.5465298,0.107946835,0.6081508,0.17994787,-0.5929189};

float fc2_wt[N_FC2_WT] = {0.18967927,-0.4363084,-0.32612664,-0.2989776,1.0097033,0.04178228,-0.13193199,0.11013179,-0.0007245698,0.22974166,-0.25504607,-0.9961802,0.5635791,-1.2549502,0.14483906,-1.0372925,0.17447458,-0.019255163,0.10458986,-0.035631564,0.43437105,-1.8698332,0.92280906,-0.28827336,0.14632827,-0.014236867,0.036719393,0.81087995,0.62093997,-0.07417548,0.5084856,-0.18522641,-0.13114735,-0.045195963,-0.06272874,-0.36373702,0.3775989,0.45406824,-0.8024686,0.13437137,0.21092717,-0.35727978,0.16523334,-0.48692757,0.36127567,0.4175929,-0.6010326,-1.3596624,-0.28880978,-0.054371327,0.37213993,0.8744694,0.6802357,-0.39173663,0.6574328,0.074598275,0.43094403,0.22558846,0.16649453,-0.23290707,-0.50470465,0.011761968,-0.15853544,1.0568951,-0.51584494,-0.16098157,0.61221176,-0.03162705,-0.2871773,-0.66354346,-0.28821772,1.4333376,-1.707379,-0.22589488,0.19084185,-0.3142192,-0.67286617,-0.7836146,-0.49662516,-0.98407704,-0.7547904,0.44313192,-0.2122735,-0.16263023,-0.038554214,0.0633325,0.7057603,0.41184476,-0.71636057,0.026820246,-0.11879236,-1.1765721,-0.0047824536,0.88469535,0.06760565,-0.4445053,-1.5658944,0.8755913,0.00047036752,-0.028514773,0.4437592,-0.07927017,-0.7519288,0.122206606,-1.164514,-0.6587404,0.23227674,-0.22496836,-0.45635277,-0.88524747,-0.3780355,0.3728823,-1.1499647,1.1183345,0.23058796,0.4268759,0.4657459,0.24057594,0.5314886,0.07596041,-0.016549397,0.94297045,0.7236838,0.08361488,-0.2384642};

float fc2_bias[N_FC2_BIAS] = {0.088941194,-0.032272205,-0.15940212,0.21467893,-0.03681036};

