#include "SVM_params.h"
float support_vectors[N_VECTOR][N_FEATURE] = {{-1.96548420584836E-01,	-1.15511368527247E+00,	1.46121208153535E+00,	-6.22537926463516E-01,	-5.95473992611950E-02,	8.29889609351017E-01,	-1.11637798648050E+00,	2.96968345039772E-01,	-1.24135196794571E+00,	6.98380267476794E-01,	2.17403048158962E+00,	-8.28382471247646E-01,	-8.20869414402441E-01,	-3.01639556169860E-01,	-1.36993737468676E+00,	9.21187201520530E-01,	-1.16351957013392E-01,	-7.41214398966505E-03,	6.32781504585285E-01,	-3.60411965334717E-01,	-1.80598692171120E-01,	-1.26512367361368E+00,	-2.62005387774739E-01,	-1.19823480184516E+00,	-1.29506153872226E-01,	-1.58745923303398E+00,	-4.80450232830119E-01,	-1.98967592478394E+00,	7.87442461438992E-01,	-1.54348961578706E+00,	-2.21553341821147E+00,	7.16959814019737E-01},
{3.27425479431369E-02,	1.85811270774325E-01,	-6.04032645304997E-03,	2.25387321420342E-01,	-3.09878728700777E-01,	1.50191025575366E+00,	-8.33340406507170E-01,	2.04244697231354E+00,	-8.77502564758225E-01,	-8.46296863628207E-01,	-1.18011280169309E-01,	2.85243142612348E-02,	-6.77491388559720E-01,	1.07337917583964E+00,	-8.33338176608444E-01,	6.26174754165622E-01,	2.29082386746508E-01,	-1.67482397618368E+00,	3.38234990785529E-01,	1.80591782496733E-01,	3.92336293110698E-01,	1.70218802397684E-01,	-1.96040202532537E+00,	-4.83968837426057E-01,	1.26933288811622E-01,	-1.19984677806117E-02,	1.37279031000071E-01,	3.72385530779464E-02,	-2.52660941924247E-02,	-2.06406339904118E+00,	-1.43029791601230E+00,	2.05602678642042E+00},
{5.15807286207867E-02,	-3.61875540246197E-01,	9.67240137602329E-02,	5.12269380259373E-02,	2.19124276701341E-01,	-6.67235533240394E-01,	-1.85492776938895E-01,	2.95285034695272E-01,	-4.85100610611927E-01,	6.70032072364865E-01,	2.06253603727576E-01,	-1.25166399810966E-01,	-7.69291447791574E-01,	1.37236969600788E+00,	-1.48232128909279E+00,	-6.78009863229860E-02,	-2.07540430522451E-01,	-1.03159004081421E-01,	3.27894810718293E-01,	1.36145395311020E-01,	1.90004385224775E-01,	-1.09233609485588E+00,	-4.40153043507466E-01,	-7.37343301226393E-01,	-5.76501176876024E-02,	-2.53234279725358E-01,	5.74634643580522E-01,	6.83189982908771E-01,	2.39406334169163E-01,	-1.50635883368693E+00,	1.56593089909057E-01,	6.03116098889735E-01},
{5.53145054268320E-02,	-3.48439881023884E-01,	-3.03034170615894E-02,	1.80322093194892E-01,	3.35872084849632E-01,	1.20735209512919E-01,	-8.72003766515273E-02,	4.31516727121627E-01,	-3.84766456204332E-01,	-2.05115110177118E-01,	2.06152724714788E-01,	4.86281423855546E-01,	-6.56248392814590E-01,	5.85957805420994E-01,	-9.66960938327869E-01,	-9.03017272253585E-01,	-5.67899490545997E-02,	1.38915262503976E-01,	-4.51798342007852E-02,	5.29735335833707E-02,	2.68053513559564E-01,	9.87708628400345E-02,	-1.58766693124926E-01,	-1.87647845347074E-01,	-5.17770345590403E-02,	-7.19192469611227E-01,	5.38064983339106E-01,	9.19232518478324E-01,	-2.24599292323044E-02,	-4.45668664413795E-01,	1.53328582116872E-01,	1.27600562963614E+00},
{5.28836782073970E-01,	7.24535522074537E-01,	-4.25867361265019E-01,	8.45383483067842E-01,	-7.52056640327767E-02,	1.76375051328352E-01,	-8.25713866066893E-01,	6.84251590849026E-01,	3.67335848194782E-01,	-1.77317585399764E+00,	-1.51027237545187E+00,	-1.85562405025168E-01,	2.81679589659614E-01,	1.44169297193670E+00,	3.59862964831906E-01,	-4.36405224889083E-01,	3.96646101912412E-01,	-1.04534783903651E+00,	-2.61191450250126E-01,	8.17957331476844E-01,	7.44222858236803E-01,	1.31202847076149E+00,	-3.25264415493368E+00,	6.97157378833450E-01,	2.62288072549331E-01,	3.89963646855729E-01,	-2.33950051657271E-01,	1.37538833031953E+00,	-8.85119570937913E-02,	-8.66247244691070E-01,	-7.51227402394397E-01,	2.12744544060874E+00},
{6.50285591919454E-01,	-2.60234910152934E-01,	-2.63488089815819E-01,	7.57763334983386E-01,	5.63742797412248E-01,	-5.26582436149594E-01,	2.65352591119508E-01,	5.99163333361754E-01,	3.35648822727727E-02,	7.80166548580819E-01,	-3.81461270860947E-01,	-2.31989235012943E-01,	-1.74089586674615E-01,	1.66059109211687E+00,	-1.28925811648588E+00,	1.76518774599729E-02,	-1.03747999707723E-01,	-1.60180237398919E-01,	4.21600774456256E-01,	2.28242156778571E-01,	5.25780159178503E-02,	-8.20505299463671E-01,	-5.97177318613882E-01,	2.26792344014130E-02,	1.82037869353348E-01,	1.75422394850933E-01,	8.18119291839184E-01,	1.14504457374900E+00,	1.57949318119398E-01,	-1.44379017033698E+00,	4.93474628678896E-02,	4.48917682773789E-01},
{2.71659865646918E-01,	-4.00592375107988E-02,	-2.44853709133579E-01,	5.92198735390171E-01,	5.37170981444941E-01,	2.57022382457704E-01,	3.29196658419600E-01,	3.19673615801381E-01,	-9.81118765237543E-04,	-8.31264906853208E-02,	-2.72548988059978E-01,	3.11789974866106E-01,	-3.33194816121936E-01,	1.18305617997690E+00,	-6.72482513602087E-01,	-1.01348639450064E+00,	-2.54497951848624E-01,	1.46819188766244E-02,	-1.03539342855707E-01,	2.07804188396441E-01,	-1.05907805698034E-01,	-6.46600056806168E-05,	-1.95017250567319E-01,	2.53342121931489E-01,	-1.51189314134622E-01,	-5.03497712546389E-01,	4.25371176600793E-01,	1.06112975926297E+00,	-1.72013594707990E-01,	-3.92661977730812E-01,	3.36860883982619E-01,	1.45538796238795E+00},
{2.03266738173986E-01,	-1.01429549996934E+00,	-2.58920139224199E-02,	3.67202692311566E-01,	4.58751078759685E-01,	-1.22862561233155E+00,	4.04278411882418E-01,	-1.40898212695771E-01,	-1.95670023094812E-01,	1.16009312537212E+00,	6.25365802060148E-01,	-1.50502072817766E-01,	-9.59571389712716E-01,	1.48071223040050E+00,	-1.62266569136217E+00,	2.15400821878392E-01,	-1.17354641789728E-01,	7.30483571682671E-01,	1.43363805287000E+00,	3.10300149473648E-01,	-7.55942043013924E-03,	-8.37224055496571E-01,	6.89556089984377E-01,	-3.37178240783358E-01,	1.65177119199858E-02,	-6.00149111920664E-01,	3.31856466202552E-01,	3.95779255799727E-01,	1.26349339897234E-01,	-9.07759158754056E-01,	6.90249440022110E-01,	1.67217206904655E-01},
{1.17603196582975E-01,	-9.71539784770054E-01,	1.73018274608269E-01,	4.93428603453010E-01,	3.72939285504908E-01,	-4.21135802106751E-01,	1.55886370142700E-01,	1.88876227607685E-01,	-2.45491182249733E-01,	1.12678129399339E-01,	1.29601450308863E-01,	5.88990184301878E-01,	-7.34997496947697E-01,	3.42707897277097E-01,	-1.15007048116828E+00,	-1.16392120886321E+00,	-1.28780804698743E-01,	4.68759165773272E-01,	5.34743875916326E-01,	-2.29477376175635E-01,	2.86050685735139E-02,	-1.59615872615607E-01,	4.61853306991956E-01,	-7.66694044231526E-02,	-1.07371676692382E-01,	-1.01302757397765E+00,	6.38601288497264E-01,	6.90866646163770E-01,	2.59657095278083E-02,	-2.67147388926756E-01,	1.01936589368350E+00,	1.37506919994449E+00},
{-3.34926207721401E-01,	-1.13913233761061E+00,	4.01302370289158E-01,	3.02125790730611E-03,	2.47170160983518E-01,	3.99926187182674E-01,	-6.98720665839028E-01,	1.17909054846466E-01,	-4.64787082090724E-01,	-1.14909712882055E+00,	-4.87931335515956E-01,	1.80476278277611E+00,	-6.85263093570122E-01,	-1.07938461961239E+00,	3.82464389089333E-01,	-2.75022128957015E+00,	-8.46693411203158E-03,	3.27172546869226E-01,	-7.27061345620943E-01,	-6.44452470957048E-01,	2.00602529643525E-02,	1.12434814509007E+00,	-1.09946083569751E-02,	-2.81225063583701E-02,	-3.65744574938620E-01,	-1.32327691342336E+00,	1.26717001767438E+00,	1.57222118646209E+00,	-2.36080283268428E-01,	-8.12394347477169E-02,	3.73401996285838E-01,	1.28295628951492E+00}};

float bias[N_VECTOR] = { 2.20529554985292E+00,	2.69396382886675E-01,	1.25379946367375E+00,	4.93729515400063E-01,	-6.12551870463840E-01,	-7.79080140438265E-02,	-4.22450984746295E-01,	6.50271908658037E-01,	7.70154254899973E-01,	1.79860869386567E+00};
int CLAS[10][2] = {{0,1},{0,2},{0,3},{0,4},{1,2},{1,3},{1,4},{2,3},{2,4},{3,4}};