#include "cnn_params.h"
float conv1_wt[N_CONV1_WT] = {-0.10298552,0.17832766,-0.03817742,0.09541777,0.026043529,0.110187404,0.20213342,0.050541442,-0.107133046,0.1691948,0.028786242,-0.07093295,0.075285986,0.1150116,-0.08815913,-0.051757194,-0.0010689088,-0.014153959,-0.07591077,0.041532815,0.008519448,-0.10528481,0.09854448,-0.051803,-0.110010214,0.12789512,0.007749271,0.08344061,0.09211498,0.097482115,-0.08336316,-0.12312007,-0.018912286,0.122905575,0.13383575,-0.09336182,0.004622889,0.03174115,0.0610639,-0.10031281,0.043983635,0.19908907,0.023511246,-0.027034625,-0.06573583,0.098703004,-0.13221653,-0.04471207,-0.082602605,-0.07033564,-0.010450783,0.016705457,0.11766792,0.008319813,0.0021009166,0.12184671,-0.14070508,0.15795101,0.08493073,-0.11231041,-0.08272119,0.037416104,0.048872035,0.1317833,0.0076260217,-0.03276962,-0.06945196,0.0071484353,0.051497042,0.11443427,0.09372423,0.048237972,-0.03797015,0.002918956,0.19319798,-0.11051011,-0.14898585,0.08185268,-0.20765898,0.02349026,-0.03277992,0.07450105,0.046150807,0.11127645,0.13289614,0.100612834,0.24009554,-0.019277122,-0.092478365,0.19405879,-0.015811762,-0.111093566,-0.11266587,0.10796651,-0.04948748,-0.085862815,0.05611867,0.030758563,0.09586285,-0.024191665,0.058797177,0.10879861,0.049085315,0.10978822,-0.13053767,0.186992,-0.013511165,-0.13819276,0.028711166,0.124134436,-0.15388878,0.09218564,-0.13972045,0.06250073,0.058379263,0.02230765,-0.08441442,0.16101703,0.18456519,0.05127691,-0.16902445,0.1990019,0.02004408,-0.061657514,-0.07226814,0.07378669,0.042391,0.016169615,-0.102576636,0.026401805,-0.045167744,-0.095786706,-0.053912733,0.0515716,0.02296924,0.06419315,-0.006946558,0.05252893,0.17126466,-0.11453921,0.05414181,-0.05639043,0.0049633426,-0.11490466,0.11437941,0.1365841,-0.13794987,-0.1468002,-0.1416979,-0.01914884,0.1336881,-0.041196108,0.07146422,-0.09058954,0.039828096,-0.033092357,0.038754467,0.047241718,-0.0046689096,-0.06163202,-0.14511836,0.15846775,-0.08977879,0.014387884,-0.10878461,-0.065084666,0.13832512,-0.09920384,-0.14630501,-0.015946407,-0.13347353,0.0015598538,-0.09142182,-0.12809204,-0.2121212,-0.058036808,-0.15921189,-0.11451282,-0.1539869,-0.1411526,-0.10745346,-0.11541934,-0.010872877,-0.0059310184,-0.09549179,0.10099951,0.0636988,-0.12783457,0.02852917,0.07262092,-0.20403673,0.12035442,0.1561922,0.051435422,0.18078734,0.049622044,-0.00506419,-0.06195941,-0.08141605,-0.06982794,0.12232011,-0.013966272,-0.0135459425,-0.05396552,0.08260207,0.10688615,0.043156136,-0.06615422,0.107605785,0.09966272,0.06560994,-0.099611394,0.020435816,-0.05549015,0.04549711,-0.081074685,-0.13611008,-0.071258634,0.14825195,-0.11482025,0.10798741,0.038350943,-0.14678541,0.0022482395,-0.08528352,0.1050178,0.07181262,0.09009334,0.047446754,0.0061430046,-0.014034376,0.03168872,0.1353943,-0.14857791,0.05967569,0.016284915,-0.08895051,0.15111372,0.012320644,0.13355473,0.07155453,-0.1439124,0.098947085,0.08705183,-0.13343485,-0.036197197,-0.057080574,-0.0013383221,-0.11131935,-0.093089916,0.09932618,-0.087626636,0.16017617,0.05586776,0.1300622,-0.011048251,0.0435616,-0.09591202,-0.056442242,-0.12101045,-0.030076034,-0.11265781,-0.11672965,0.027207667,0.0044504767,0.029229755,0.16919409,0.049984682,-0.021725006,0.16356963,0.13423666,-0.101989284,-0.04479388,-0.08175681,0.08687143,0.07783692,0.067037016,-0.16251563,-0.096710846,0.017411813,0.12585482,-0.15581751,0.027126659,-0.064949796,-0.10765489,0.104159474,0.07464611,-0.005888415,0.110075645,-0.137932,-0.035047147,-0.039206292,0.04799918,0.11778444,0.10099857,0.113317885,0.07326215,-0.10797202,-0.018419195,-0.19497044,-0.09599827,0.14262445,0.10340248,0.07843701,0.10680506,0.13824423,0.027955867,0.09187146,0.09244322,-0.12652771,-0.047145445,0.0643298,-0.05012186,-0.10822911,-0.090647176,-0.17340575,0.16304287,0.12752333,-0.063326925,-0.020525297,-0.028208487,0.1221321,0.15566577,-0.044634033,-0.0012929091,0.10080804,-0.13659607,-0.025250044,-0.037192654,-0.1406961,0.035816714,-0.22202332,0.089154094,-0.023315988,-0.0149062,0.043059893,-0.03946102,-0.058655757,-0.0434594,0.020921646,-0.005046027,0.026709877,0.08690437,-0.047462605,-0.0578899,-0.0021808231,-0.10961752,0.017106228,0.004933168,0.031884328,0.121806115,-0.07093138,0.053594023,-0.04698276,0.20766868,-0.11067866,-0.119116515,0.11366061,-0.014217914,-0.04719595,0.15727466,-0.16566731,-0.13822494,-0.23213997,0.15185301,0.09133665,-0.10113022,0.06757632,0.033384927,0.055700123,0.12819551,-0.018512422,0.0014743957,-0.05330169,0.07809195,0.035726108,-0.0013150269,-0.0536914,-0.046111606,-0.05512461,0.07321544,0.037488814,-0.045639202,0.10017339,0.005531469,0.009350207,-0.12381362,0.14812006,-0.018547809,0.2020931,0.030943822,0.08977755,-0.013813256,-0.031559937,-0.0711344,-0.003955908,0.09275464,-0.1621761,0.21697283,0.11173485,0.00018360587,0.038755022,-0.14283761,0.04038075,-0.06345642,0.15534198,0.0007023813,0.045610204,-0.034689862,0.13337894,0.01310587,0.21497358,0.09244277,-0.016550843,0.22756238,-0.14735533,-0.052142628,-0.06258934,-0.017390829,0.028515581,-0.022389166,-0.00024918924,0.063010514,0.084620915,0.09861348,0.07902877,0.10351633,0.037947256,0.022646368,0.06597462,0.12785967,-0.1455695,0.088787846,-0.068281576,0.025476389,-0.08661768,-0.11661488,0.17242071,0.11253383,0.11064423,0.16112737,0.09942317,0.12787634,0.2763275,0.1952899,-0.17122252,0.15880857,-0.005698589,-0.10543057,0.09596497,-0.15253788,-0.019025618,0.03650536,0.068419844,0.081077665,0.12457898,0.07785138,-0.09069234,0.08374234,0.118869245,0.14722535,-0.04326578,0.0027928874,-0.16765383,0.08885226,0.07055994,0.020622266,-0.080783755,0.07403354,-0.062117465,0.16261221,-0.14880669,-0.06894604,0.015807856,0.06499273,-0.005383863,-0.051185757,-0.09834744,0.2182037,-0.0064062113,0.13436891,-0.08320793,0.084281035,0.13433431,-0.12842278,-0.056442346,-0.037775032,-0.102041624,6.561428e-05,-0.046846945,-0.10041336,0.08977745,0.1902529,0.023253553,0.20593275,-0.2085339,-0.1286605,-0.03786394,-0.12102847,0.13212654,0.09121485,-0.0020523714,0.025135638,0.03270255,0.19179916,-0.035733875,0.115094766,0.09089692,-0.064648986,-0.0077391174,0.029215235,-0.03501346,0.099993326,-0.17841469,-0.06515214,0.12257889,0.014529638,0.0023962362,0.19427058,-0.1591651,-0.0706089,-0.02703111,0.11508719,-0.042325523,0.056209832,-0.12338535,-0.042805206,0.014524085,-0.022191491,-0.1446017,-0.09661158,-0.048270047,-0.042083405,-0.019609096,-0.060553357,-0.15534024,0.132314,-0.17101471,-0.15144718,-0.08237221,0.057364494,-0.16709295,0.11721593,-0.13129966,0.088394955,0.10167927,0.09506511,0.110125035,0.018671198,-0.07811175,-0.07044866,-0.13938041,0.034477003,0.059303056,-0.0056485846,0.08491587,-0.009716607,-0.15194876,0.11088858,0.058090825,0.020520309,0.08918347,-0.07481691,-0.04143704,-0.15817782,0.05054371,0.1290061,-0.21697,-0.042055488,-0.09848671,-0.17372088,-0.034358718,0.0116395,-0.14077419,0.14018667,-0.03625187,0.09953836,-0.17229436,-0.036692202,0.016678039,-0.023979982,-0.18622075,-0.08866876,0.025686506,0.06045424,-0.0064986832,0.24843629,0.22496074,0.06498555,-0.020581443,-0.084986344,-0.22190276,0.14255649,0.0054905354,0.046800412,-0.050812032,0.0089362515,-0.18502395,0.0736677,0.07127473,0.0010299571,-0.035119064,0.16000654,0.21340615,0.047889125,-0.12735051,0.058571633,-0.030487675,0.114490345,-0.0954926,0.11080133,0.09203888,-0.04864539,-0.007525316,-0.15924217,0.02521097,-0.092182726,-0.07832063,0.21379769,-0.04784851,0.023425998,-0.016774688,0.11968198,0.011719819,0.020831512,-0.10240076,0.11268053,-0.030054936,-0.026250547,-0.108330674,-0.06260525,-0.048536316,0.14772101,0.072141,0.26697403,-0.05020059,0.17095652,-0.13169634,-0.048880726,0.056818202,0.07375171,0.026028888,0.16317883,-0.024803467,-0.15593144,-0.14465727,-0.14911741,0.05226818,0.13121717,-0.15265353,0.16695347,0.013485216,0.09659109,0.054436523,0.09699629,0.02672253,0.1454862,0.042679977,0.11783217,0.11457752,-0.17863967,-0.12635268,-0.09160157,-0.11074344,0.14938042,-0.12798446,0.10244058,-0.1588369,0.11613782,0.065166876,0.14942613,0.07092021,-0.06704223,0.059415832,0.15744315,-0.014510726,-0.1892204,-0.1531301,-0.05615694,-0.06773177,0.053467672,-0.06723319,0.07799495,-0.22580332,-0.041373473,0.002624833,0.114464045,-0.06960524,0.11630205,0.12437497,0.0046091033,0.056080848,-0.17056218,0.05336172,-0.14954732,-0.035552215,0.11341084,0.05681674,0.08335323,-0.22586252,-0.058437355,0.1303571,0.09682315,-0.008805114,-0.02498907,0.047987953,0.11097816,0.08502413,-0.16249782,-0.16800988,0.04269892,-0.07787205,-4.384421e-06,-0.07235258,0.045870624,-0.071843795,0.17252034,0.02269403,0.043799017,-0.05235228,-0.062150694,0.1697718,0.14442025,0.013507703,-0.07610163,-0.17366615,-0.16331448,0.048802786,0.17755654,0.0043431064,0.006849388,-0.1638177,0.18519917,-0.09004241,0.05858092,0.10876853,0.0863173,-0.027393846,0.15000524,0.072967306,-0.06056538,0.04146111,-0.2341741,-0.14266326,-0.1072351,-0.10913591,-0.15688492,-0.21234347,0.08966897,0.038366627,0.039495863,0.005339465,0.09040505,0.061806977,-0.10324666,-0.11435181,0.018737033,0.09336369,-0.05387249,-0.063603446,0.11680091,-0.10999611,-0.08346823,-0.021238163,-0.03791692,0.16466177,0.14517647,0.2745699,-0.06600861,-0.10020812,-0.06789116,-0.07115469,-0.090115465,0.06634936,0.028969763,-0.117964126,-0.10024444,-0.010468017,0.0288318,-0.09399937,0.07569722,0.053939875,0.10296727,-0.026877515,0.12564042,0.01739042,-0.07448369,-0.104404226,-0.12881547,-0.08015141,0.0069352845,0.1378911,0.089459956,0.14109208,-0.010175916,-0.086816505,0.14485982,0.08313402,0.028912611,-0.069508925,0.04313451,0.044450298,-0.032568,0.07189712,0.06933697,-0.07960814,0.059119564,0.14408371,0.11287522,0.14004461,-0.1266593,-0.054011762,0.14401291,0.1503052,-0.04144491,-0.10308719,-0.052406058,-0.051308975,0.13699675,-0.105431944,0.0007234899,0.10366267,0.12800993,0.034826793,0.024234377,0.02972934,0.017776469,-0.08199701,0.044014785,0.13242567,0.11357001,-0.023039993,-0.055748492,-0.035612337,0.072224766,0.10007104,0.07865971,-0.038910665,0.031269237,-0.12119181,0.05420046,0.054748047,-0.005579983,0.017190306,-0.10085746,-0.057057273,-0.09639935,-0.12895977,0.038913462,-0.026270963,0.20048888,0.06466573,0.018300384,-0.106378295,0.040123336,0.09255874,0.102070205,0.00044758077,0.03748531,0.024547178,-0.036934614,0.13418002,0.030003585,0.046762634,0.072310984,-0.016769292,0.15726854,0.112890184,-0.049404193,0.10546467,0.13510363,-0.13958484,0.10288073,-0.05265924,-0.061349835,0.0058283205,0.061754897,-0.079671405,0.060051307,0.0008395012,0.09549063,-0.0073796343,-0.05896243,-0.05220549,-0.05872393,0.038590234,0.08550142,0.012314287,-0.04893899,-0.0881718,-0.07391903,0.031035312,0.025526855,0.04616637,0.062395394,0.111352846,-0.12608817,0.16109799,-0.029715614,0.10804858,0.03671631,-0.08059272,0.008631539,-0.11144882,0.123010695,0.08051562,0.0438838,0.024706801,0.16280584,0.16489378,-0.049904972,0.03516959,-0.13987805,0.13558878,-0.026944524,-0.05348699,0.10704901,0.0738269,-0.021031916,0.049794797,-0.09649187,0.037788834,0.00026596567,-0.107566416,0.16341798,0.11436039,-0.17088085,0.075826615,0.062735565,-0.07224546,0.011980474,0.08230968,-0.098020434,-0.10288175,-0.013022818,-0.019478591,-0.060660403,0.19408348,-0.10559809,-0.22723919,0.09801087,0.14967015,-0.063334525,-0.034020808,-0.14999548,0.07891292,0.15379436,0.024950806,-0.016479718,0.05589612,-0.046619393,-0.028353898,0.057183567,0.10706016,-0.18930843,-0.14268303,0.008426643,0.1282527,-0.09484595,0.20771505,0.0033945325,-0.009822257,-0.10226858,0.009857789,0.07604714,-0.01776547,-0.07713725,0.011348926,0.0870354,0.014266833,-0.07450467,0.26701066,-0.04434481,-0.16186771,0.06557748,-0.016064491,-0.11113687,-0.11800556,-0.022325737,0.032161407,0.08638671,0.025414815,-0.0034403966,0.124486014,0.054396067,0.09102524,-0.014706151,0.21338989,0.11798283,0.027797969,0.1352472,0.088708885,-0.08526155,-0.091937855,0.11066226,0.013056904,-0.052191634,-0.049426235,0.031608604,-0.045536757,0.04349765,0.103853606,-0.041209634,0.18542103,0.07400046,-0.01309175,0.08162057,0.04107273,-0.0866741,0.004587871,0.1010705,0.14512077,-0.09908068,-0.028103596,-0.13004138,-0.037911482,-0.050814763,-0.022417905,0.03657146,0.089961566,-0.08638316,0.0041305874,0.084484056,-0.04726075,0.08360026,-0.0498642,0.038640242,0.07297946,0.027508697,-0.08004624,0.10952778,-0.12283646,-0.10633807,-0.12676696,0.12600859,0.25706348,-0.15448447,0.044492137,-0.07485288,-0.06493365,-0.12582783,-0.06002453,-0.12737513,0.010765987,0.026190143,0.032269802,-0.11582249,0.017693907,-0.041945808,-0.014497199,0.10469736,-0.018838674,0.057929832,-0.13952762,0.16784683,0.087535046,-0.052819733,0.024961786,0.11239038,-0.028062142,0.11641785,-0.015076907,-0.03469699,0.11201087,-0.1117774,0.020252611,0.06479915,0.18322273,0.113876276,-0.15200198,-0.06580277,0.072916776,-0.09233747,-0.15439746,-0.033101533,-0.009294228,0.13590835,-0.045818273,0.11651803,-0.15558916,-0.022966947,0.000910364,0.1617021,0.15701471,-0.15932341,-0.08995632,0.033645365,0.059035808,0.08541779,0.06097492,0.0149309635,0.051557522,-0.10378077,0.11552262,-0.033357296,0.051196575,-0.08172797,-0.10209915,0.15244164,0.11776903,-0.03762345,-0.12258923,-0.114760175,-0.15700081,-0.15273882,-0.09527777,-0.021497793,-0.12890752,-0.0039457353,0.1562986,-0.12297467,0.044748925,-0.02754069,-0.10437058,0.19536829,0.20291495,0.040109325,0.080112316,0.026829785,-0.11982285,-0.08915981,0.11710287,0.04229469,-0.014784948,0.013994047,0.1620041,0.1304109,-0.14542706,-0.1608474,-0.10615225,0.1300205,0.13890986,-0.048998635,-0.10121265,0.03312577,-0.11468913,0.008310881,-0.118265115,0.12707105,0.07756748,0.0793492,-0.090143956,0.05073562,0.08854645,-0.051252402,-0.10996391,0.025312535,0.13440502,-0.018632762,-0.12595694,0.11453651,-0.15104091,-0.030588303,0.044651315,-0.13196239,0.099912256,0.095910266,0.113960475,0.14554352,-0.11888338,-0.050111808,0.08277291,0.09722777,0.2083667,0.123770125,-0.107265584,-0.03496736,0.10169172,0.10943199,0.109123155,-0.17331645,-0.0070155663,0.12284595,-0.03002797,-0.104372494,0.098061964,-0.034196932,-0.053266037,-0.121744774,0.004462768,0.13691884,-0.15633854,0.018697007,0.12180059,-0.093806356,0.07982931,-0.16704038,-0.044873085,0.082591616,-0.085218556,0.105524056,0.07141836,0.036807425,0.18263637,0.08339951,0.0062038447,0.021564908,-0.08987889,0.102252826,-0.04735058,0.043275785,-0.12674281,0.07904513,0.10017731,-0.12526736,-0.0949232,-0.06658531,-0.02545796,-0.09747557,-0.07952857,0.08424248,0.09430142,-0.14079846,-0.06539217,-0.007237194,-0.0073302593,0.07030716,-0.15652144,-0.17591403,0.10208984,-0.03420042,-0.10380355,-0.0047196704,-0.15197974,-0.046350542,-0.025611972,-0.03434192,-0.0024921864,0.11554568,-0.1426209,0.007824035,0.112121284,-0.05466672,0.124562204,0.0034940334,-0.06853,-0.028054763,0.12838377,0.08644798,0.11489381,0.09815864,0.042613953,0.07985205,0.11122329,-0.049640622,0.00911117,-0.042349916,-0.124616675,-0.087221146,-0.14042701,0.06419226,-0.03437602,0.14814767,0.12257553,0.076006785,0.11015223,0.15757369,0.11457144,0.06859187,-0.015215698,-0.11812917,0.086618945,0.15222473,-0.10050108,0.13944969,-0.14934371,-0.100717925,-0.09224767,-0.039963655,0.10033607,-0.069882534,0.037654255,0.09582012,-0.07426598,0.09272009,0.09356395,0.06890939,0.11016977,0.15490776,-0.10777462,0.11791881,0.02091978,-0.07406839,0.035567123,-0.101441994,-0.01734613,0.035084523,0.11259041,-0.011610187,-0.09746329,0.18374443,0.07754315,-0.078449816,-0.054098208,-0.0730982,-0.00084592943,0.030571746,0.03501142,-0.15702756,-0.1198247,-0.020354489,-0.026008256,-0.038249318,0.06075299,0.030930271,-0.04638889,0.05055516,0.09759251,-0.065930456,0.079449125,0.007211402,-0.019019138,0.12395356,-0.031617798,0.105446175,0.0808667,0.04438251,-0.112895735,0.15911712,-0.021738261,-0.14230229,0.075964175,-0.06912709,0.010456462,-0.08679348,-0.12530233,-0.12632689,-0.07193078,-0.045509156,0.01949677,-0.11820178,-0.116216585,0.019740267,0.06120298,0.17888004,0.12311137,0.10820104,0.123278596,0.10345532,0.106084034,0.001852817,-0.16011837,0.114894316,-0.07688837,0.04855559,-0.016787788,0.006451617,0.108215414,-0.14871807,0.07259,0.067759596,-0.13528666,0.13298304,0.014798512,0.13112836,0.0772954,0.046198454,0.02915353,0.07762401,-0.020023,0.05798816,0.048949018,-0.013036276,-0.008982648,-0.019031188,-0.040994126,-0.12360617,0.06209302,0.13504657,-0.0655756,0.037710056,0.21331109,-0.07210735,0.07576525,0.0035169264,0.038047895,0.16211559,0.12557937,-0.1746067,-0.06890259,-0.11134022,0.06722496,0.0038795434,-0.14950025,-0.056368828,-0.05274497,-0.051711764,0.10064012,0.09058544,-0.023442825,0.1861098,0.0446903,-0.05653543,-0.036935113,0.07829445,0.13966666,0.039073326,0.034213364,-0.20853291,0.075017326,0.07034637,0.03672464,0.06190248,0.19629116,0.101955965,-0.08485872,0.13440932,0.062029418,-0.09575213,0.06616109,0.042605147,-0.10649822,-0.09072807,0.06705064,-0.20118012,-0.09870185,-0.0015537398,-0.10405,-0.02784945,0.1719163,-0.08414277,-0.14700869,0.17978615,0.04571947,-0.09044352,-0.1320104,0.03437521,-0.073024355,0.14230311,-0.03888468,-0.20001103,-0.16413672,-0.08063695,-0.07216014,-0.051617034,0.033938315,0.012699406,0.031209394,-0.0017169976,0.092004344,0.16974632,-0.0538736,0.0021144617,-0.077664085,-0.09650108,-0.042793173,-0.03575394,-0.16316104,0.17208156,0.005230239,-0.027872257,-0.018537689,0.028421892,-0.15287952,0.049942438,0.05089307,0.055285204,0.044325765,0.034170326,0.050927516,0.1297167,-0.009053383,-0.20164931,0.029098058,0.050418228,0.009256155,-0.104276,-0.057989426,0.16187887,-0.104732946,-0.034935534,0.13836838,0.03863711,0.076553255,-0.0429783,0.022560745,-0.09680489,0.14003336,-0.16784427,-0.017502068,0.045144442,0.0076761516,-0.09011995,-0.05701315,0.12543958,-0.14781296,0.0055183447,0.07921654,-0.038258217,0.03358304,0.03927792,-0.06652807,-0.012023155,-0.08287565,-0.06512044,0.011517525,0.027144544,-0.085828215,0.1285034,-0.047026917,-0.0052409177,-0.12472538,0.08100707,-0.04453947,-0.10602884,0.099155396,-0.052682403,0.03449638,0.17034124,0.013759375,0.03483316,0.0423474,-0.05572925,0.16934553,-0.112229064,0.18728347,-0.01601589,0.08053445,0.16425484,-0.0323328,0.029561313,0.1362648,0.029020956,0.106824435,-0.08701646,0.024723263,0.047140047,0.11978363,0.0035424395,-0.00808618,0.003462998,0.24679641,-0.014840583,-0.09587559,0.14407791,0.027724858};

float conv1_bias[N_CONV1_BIAS] = {0.06329185,0.017819943,-0.0030949577,-0.016100097,0.030256942,8.70273e-05,-0.016595244,-0.017061356};

float conv2_wt[N_CONV2_WT] = {0.119247325,0.20553806,0.0709702,0.05897155,0.21803296,-0.098433316,0.21177581,0.060030233,0.2185165,0.07218148,-0.10573234,-0.013631829,0.102943785,0.08029935,-0.049171515,-0.12680998,-0.005114066,0.031851914,0.040610664,0.17341562,0.11284159,-0.22244678,-0.06347566,-0.08509389,0.10095343,0.18295588,0.043064494,0.077637866,-0.050191317,-0.0146164,-0.015824955,-0.043714274,-0.058078777,0.17306417,-0.12703505,-0.01644748,0.1259791,-0.12630454,0.06831021,-0.033106778,0.043613255,0.16292463,0.09147541,0.116244435,0.2265749,-0.17334044,-0.07771638,-0.035711367,0.23918799,0.1355956,0.070688464,0.08328445,0.21641742,-0.11400701,0.05837748,0.05531658,0.116159715,-0.017674392,0.1781575,0.014718784,-0.052796073,-0.07342197,-0.01743546,0.056365564,0.20983085,-0.084827356,0.031219164,0.0094695585,0.10244876,-0.1219471,0.045322824,0.095285274,0.22528994,-0.10904781,-0.014734632,0.12215635,0.1600025,-0.06764379,-0.17496334,-0.053306494,0.022868974,-0.16545321,-0.15091337,-0.0338609,0.083537705,-0.20699121,0.062667385,0.05526944,0.14851628,-0.14204518,-0.022742977,-0.05845019,0.09796446,-0.055325683,-0.021558048,-0.13123928,-0.19738334,0.05435646,0.1613039,0.25063452,0.07735858,0.23161298,0.03733248,0.2711843,0.043446586,-0.059511352,-0.094213665,0.1879426,-0.16873819,0.25926816,0.026219228,0.24774742,0.015184196,-0.119992696,0.16185173,0.1433903,0.13147871,-0.0353718,0.120592065,0.2755071,0.030980097,-0.1284644,0.016711282,-0.04018385,0.13640822,0.030356774,0.14044058,0.22560808,-0.20238927,-0.1287343,0.19549246,0.17451034,-0.14703391,0.19617093,-0.09186225,-0.07141963,-0.109385654,0.021049839,-0.10395484,-0.020864723,0.058469497,0.037607618,0.18738028,0.22742864,-0.23787329,-0.043761246,0.11872129,0.16579281,-0.12726383,0.13481504,0.009356492,0.23994619,0.06605469,-0.122955196,-0.12371431,-0.0124456305,0.11914528,0.07257665,0.018762391,-0.08940955,-0.084880345,-0.12450235,-0.15429796,-0.017400486,-0.09305128,0.2840073,0.055156935,0.10689905,0.1645559,-0.121494025,-0.14666148,0.06353355,0.031870376,-0.0135224275,0.14791422,-0.15930454,0.1151747,0.04934773,0.007219858,-0.06875197,-0.0005079429,0.003523396,0.1272061,0.18347204,-0.11384704,0.080872655,0.19668092,0.015863063,0.018737419,0.052568838,-0.072703734,-0.07487802,-0.14201589,-0.08699862,-0.10671078,-0.17172368,-0.038960747,0.0997218,-0.16149253,0.098369315,-0.12118213,-0.08793789,-0.034676652,-0.18689506,0.1465631,-0.041332684,0.13840662,-0.14804628,0.068624064,-0.13681608,-0.016210679,0.07953377,0.022910101,0.09697382,0.03764604,0.16460213,0.10940301,-0.11124758,-0.14369842,-0.11921949,0.03855538,0.19191022,-0.14149716,0.071194746,0.017101519,-0.18133576,0.017826794,-0.05322258,-0.11556008,-0.10818716,-0.029535023,0.04818285,0.050969273,0.13957353,0.0034612534,-0.1864832,-0.06031822,-0.10246229,-0.058579873,0.16589968,-0.11659883,0.15260717,-0.10318611,-0.053108983,0.040940467,-0.026280474,0.114256516,0.110118665,-0.0434821,0.12744665,0.0033924363,-0.15374465,-0.17258316,-0.15244475,-0.056715317,0.083976194,0.13998356,-0.021218892,0.009267926,-0.11361945,-0.16445173,-0.16305162,-0.017627308,0.1768822,0.04447341,-0.094837576,0.07243458,-0.13911493,-0.13673703,0.08983411,0.1522854,-0.047562674,-0.1197095,0.069098175,0.13677908,0.06897331,0.039933387,0.029924763,-0.18271904,-0.15392019,-0.052235667,-0.1697594,-0.015906654,-0.14635919,0.0063739666,-0.04750069,0.037737865,0.091069855,-0.14592311,0.05372427,0.039217103,0.25578797,0.1781322,-0.10713385,-0.15010588,-0.047304142,-0.011355383,0.21295808,0.0024728903,-0.012551117,0.11743628,-0.26800194,0.029635431,0.01753458,0.11365068,0.28224128,0.14002824,0.01464651,0.041043896,-0.23865324,-0.1905258,0.032327157,0.08509042,-0.019268878,-0.020494921,0.12939575,-0.063759066,-0.25103232,0.08190096,0.08840762,-0.043874476,0.085512415,0.10921134,-0.04183979,0.18325149,-0.02721683,-0.19346301,0.07754684,-0.09489119,-0.049094863,0.10718636,-0.0024710598,0.06316909,0.0799904,-0.01065016,0.20345317,0.15558349,0.15634334,0.028962031,-0.112563856,-0.031650014,0.012752251,-0.19518623,0.13081509,-0.18581644,-0.132211,-0.13739106,-0.26950565,-0.052222773,-0.06467347,0.021099214,0.04610016,-0.0007209137,-0.1142995,0.12908712,-0.21814412,0.10999854,0.03362569,-0.13520642,0.10643052,-0.09543991,0.052756738,0.07587538,0.040312257,-0.051413085,0.061627444,-0.14908977,-0.10646468,-0.04161293,0.07963441,-0.046564747,-0.14223148,0.08551015,0.084975004,0.09868255,0.1272187,0.092716165,0.05162571,0.048020806,-0.06449079,0.13537882,0.15934624,0.096397914,-0.032567997,0.11786657,-0.08399627,-0.14361346,-0.019169012,-0.13212477,0.0663774,-0.14533314,0.1083095,0.16063064,-0.022944475,-0.13936284,0.022680592,-0.13157932,0.04946788,0.16489685,-0.008939664,0.10551,0.06907856,0.091872595,-0.09638766,-0.02378008,-0.10531771,0.18265064,0.047655918,-0.17333746,-0.079738095,-0.09947363,-0.017353985,0.07027681,0.084118694,0.18641977,0.028474018,0.1571376,0.16853064,-0.05694904,0.23481373,-0.009556928,-0.059306245,-0.11147782,0.082211725,-0.11393417,0.23682293,0.14851889,0.13487872,-0.09548727,0.14286019,-0.043544304,0.11634455,0.17741457,0.032031517,-0.048907876,0.19787516,-0.020534158,-0.089073434,0.19807981,0.18853271,0.16299532,0.224777,-0.024768533,0.06983517,0.1663895,-0.09155757,-0.1249772,-0.03455387,0.05071865,-0.080830365,0.062358867,0.10515559,0.16231546,0.09345674,-0.0054068523,-0.022549774,0.095836096,0.020566685,-0.1923655,0.13487233,-0.11732235,-0.19178544,0.053794626,-0.06620779,0.25584978,0.08819719,-0.1237001,-0.10473498,0.08127266,-0.12523642,0.07114777,0.021260768,0.2476257,0.012630567,-0.020535339,-0.23454536,0.033176012,-0.14504619,0.018452208,0.08413585,0.05041004,-0.06877735,0.017434064,0.13737468,-0.017637422,0.05128245,-0.16764706,0.18575001,0.03831475,-0.05502787,0.04556696,-0.047741868,0.07183573,0.106910035,-0.016349167,0.2695116,-0.050073314,-0.16539714,-0.114436716,-0.25255132,-0.09282024,0.0190955,-0.10128394,0.17418459,0.13261728,-0.17529954,-0.08101695,-0.23051392,-0.06995662,0.18819778,0.14930111,0.033048857,0.038590655,-0.13046446,-0.067543164,-0.095811,-0.019862462,0.048690487,0.21953407,0.16424143,-0.014927791,-0.18285759,0.14129364,-0.1996311,0.0043321154,0.29235065,0.15325363,-0.13399619,-0.055142034,-0.024199646,0.047155477,-0.099875934,0.17516539,-0.002101851,-0.017177003,-0.1439329,0.18003018,-0.219706,0.2528922,-0.15288147,0.031116387,0.16922905,0.13599403,-0.1399928,0.19102156,-0.098441444,0.13734725,-0.06344677,-0.047185924,0.27428398,0.18220443,-0.12815872,0.011655178,-0.19365199,0.16343638,0.09844794,0.005506234,0.17447741,0.19833039,-0.024148444,0.27474812,0.06892771,0.099249505,-0.040872198,0.024246719,0.00875106,0.12753014,0.1519124,0.25427166,-0.18209817,0.11359272,-0.05867153,0.15421557,0.23763119,0.010395091,0.09306261,-0.17930391,0.05850394,0.07013869,-0.078956895,0.039925225,-0.17348553,-0.07770727,-0.074334666,-0.069301106,-0.06296846,0.12764089,0.22103524,0.078358114,0.08732439,0.10339794,0.26497295,-0.18400785,-0.0005073995,-0.012386048,0.20461348,0.116591915,0.13480338,0.16894116,0.21135387,-0.004776539,-0.04139132,0.051748935,-0.13575618,0.0035991888,-0.13101432,0.1712481,0.087680094,-0.055808622,0.10434891,0.17854626,-0.1052809,-0.03839146,0.0037115659,0.1269268,0.17992577,0.047571275,-0.15258287,0.09071718,0.05266864,-0.06597441,0.12525465,0.0051733516,0.20169844,-0.031253707,-0.3005275,-0.0015765828,-0.2421303,-0.104692735,0.058978107,0.017072704,0.11663284,-0.20976602,-0.18296163,0.11835192,-0.24614196,-0.101734184,0.033185918,0.048199378,0.07275141,0.037909232,0.018809315,0.14265624,0.054905076,-0.07336421,0.12036152,0.006837968,0.16880421,0.03217847,-0.18423517,0.047378805,0.16454394,-0.031817988,0.27906147,-0.09145686,0.14382876,-0.07614953,0.045189288,0.044432085,0.013729329,-0.12108355,0.23859496,0.19871473,0.11717892,-0.1771376,-0.15234032,0.15090504,0.113381974,0.14059012,0.1920737,0.023750503,-0.031063639,-0.016258664,0.113947436,0.019143326,0.20266616,0.053017132,0.009006191,-0.013369813,-0.10758409,0.0981811,-0.14537069,-0.028061423,-0.10681139,0.037745904,0.21041483,-0.13299602,0.0067229085,0.025051592,0.03222559,-0.045270633,0.16191956,0.14875776,-0.03875411,-0.17984244,-0.050142538,0.04445457,0.037360925,-0.19933689,0.103572115,0.037749898,0.071194224,0.061611407,0.1113944,0.17467783,0.07951755,-0.05846214,0.0103660785,0.016146779,0.035232477,-0.06717702,-0.005864092,0.17720991,-0.17654711,-0.054145355,-0.20182878,0.030390762,-0.0041412897,-7.631243e-05,0.0999368,0.13456312,-0.113420166,-0.14963822,-0.22663516,-0.04041235,0.14677134,0.043850377,0.0030528912,0.13270147,-0.050675485,0.09247507,-0.039390806,-0.10664291,0.12506,-0.0991411,-0.13296823,0.27716002,-0.112383366,0.15394837,-0.21335013,0.14482345,0.0038403003,-0.0065823416,-0.19149578,0.23129863,0.0021841205,0.07149091,0.07217513,-0.084586434,0.08460278,0.15215442,-0.13255869,0.2556782,-0.019195067,-0.0805569,-0.0523597,-0.13326818,-0.12759331,0.03794455,-0.20065147,0.20775048,-0.02916584,0.03747783,-0.02968724,-0.06883426,-0.08229027,0.009183332,-0.20559654};

float conv2_bias[N_CONV2_BIAS] = {0.07553355,-0.002192976,-0.019139143,0.035305522,0.049269456,0.034698874,-0.018005917,0.043090932};

float fc1_wt[N_FC1_WT] = {-0.028509432,0.030678418,0.0875504,0.02295189,-0.47015375,0.051414926,0.17542566,-0.16850047,-0.008112976,-2.5001224e-05,-0.11159555,0.04383092,-0.45569363,0.2488097,0.25568187,0.07592121,-0.304784,0.20340088,0.20842224,0.0466116,-0.28652713,0.29509422,0.25200588,-0.18819566,-0.08361492,0.015257023,0.012241344,-0.2033208,0.15106224,0.23476857,0.019187877,0.04149055,-0.33594853,0.17991525,0.13644081,0.007816136,-0.12071896,0.22057852,-0.028898174,0.19161732,-0.29735643,0.10402899,-0.003780527,-0.13018791,-0.054139465,0.17662585,-0.08475436,0.23529166,-0.31372222,0.1977616,0.07320145,-0.19669226,-0.02004165,0.1289707,0.08699156,-0.076348834,-0.27806798,-0.21435793,-0.1027105,-0.08847359,0.090571366,-0.16569608,0.1622381,-0.02363041,-0.107682414,0.059348077,-0.15583298,-0.09713243,0.05954624,0.15993604,0.16496776,-0.18081167,-0.21281964,0.2479942,0.026436131,-0.124438025,-0.10237407,0.09472162,-0.12882107,-0.17646146,-0.31061983,0.32858998,-0.14584209,0.23563,-0.12911958,0.31136888,0.020081509,0.09149371,-0.13032953,-0.06334586,0.3208914,-0.10270431,-0.10643472,0.37080526,0.3655426,-0.10581118,-0.12582964,0.088505775,0.2124271,-0.14367008,0.13619204,0.028856551,0.023706444,-0.08254653,0.028177254,0.066307224,-0.047657467,-0.02712474,0.35625347,-0.100792006,0.093182534,-0.28507113,0.09143693,0.073217064,0.18240276,-0.13604856,-0.08103374,-0.04757239,-0.13687849,-0.100530595,-0.2148219,0.24739079,-0.08989747,0.20977567,-0.18239267,-0.03342418,0.20340893,0.1542059,-0.01760344,0.01484077,-0.21480152,0.12770869,0.055056985,-0.13862334,-0.05064858,0.20673484,-0.051433034,0.26883724,0.039822124,0.0768844,0.20402354,0.030423004,-0.0852914,0.062367573,-0.112435035,-0.045007765,0.10830348,0.07435919,-0.04196189,-0.025222179,-0.23234123,0.0526337,0.09401214,-0.20102718,0.20449325,-0.0729483,0.28445882,0.18969296,0.13291156,0.095172204,0.02493294,0.18210307,-0.049625102,0.084383905,0.24855018,0.094099745,-0.1788232,0.382888,-0.0007153125,0.19122635,0.19155072,-0.086451426,0.15138456,-0.0149076795,0.0032922754,0.022512501,-0.025673252,0.32136256,-0.013469059,-0.16112527,-0.14935283,0.019941563,0.15755862,0.30324203,-0.03374874,-0.20003548,-0.15343401,0.15047604,0.0932272,0.16814741,-0.31282264,0.034334414,-0.014830123,-0.032919537,-0.13518205,0.15323335,0.15202305,0.3169661,0.07382209,-0.03760874,0.20876548,0.09496234,-0.11112968,-0.1950801,0.12133825,0.25700256,-0.051419947,0.29454663,0.26380172,-0.282686,-0.25018132,0.11407307,-0.12408694,0.006440496,-0.25012717,0.27974296,-0.10425461,-0.050468557,0.060096346,-0.24143282,0.1489033,0.035932526,-0.3575593,0.23170441,0.10921943,-0.31284052,0.1690371,-0.15899028,-0.15250166,0.09061834,0.056357402,-0.016585512,-0.012266653,-0.10052557,0.19443804,-0.1212351,-0.12637083,-0.10801422,-0.22701085,-0.09679077,0.17945606,-0.24156843,-0.2782908,-0.14714298,0.20485486,0.044621956,-0.17505111,0.025510542,0.29916966,0.12324779,0.16663834,-0.015325024,-0.010940752,0.07379543,0.05102896,-0.28946346,-0.22165729,0.066153854,-0.009436509,-0.12048067,0.013948103,-0.048852652,0.18867798,0.10073547,-0.070355885,0.051029533,0.22040862,0.2877836,-0.033546828,0.10166743,-0.09046014,0.051721845,-0.27714244,0.12264751,0.036350153,0.097382955,0.038930718,0.18956225,0.138274,-0.06108762,0.04550543,0.22639403,-0.15475823,0.2955161,-0.3222027,0.2755725,0.30538,-0.13281547,0.017037868,0.058505286,-0.08362415,0.030803572,0.21487513,-0.06334844,0.25736114,0.025759686,-0.1385118,-0.082307,-0.026433537,-0.16475892,0.1578571,0.25795528,0.07919629,-0.22818433,-0.16783348,0.35319832,-0.14966139,0.24294214,0.15682557,0.11095196,0.21756099,0.010494673,-0.2917196,0.3329205,0.07939952,-0.040814996,0.15951014,-0.03530607,-0.057685666,-0.1057688,-0.21372074,0.33817977,-0.16376124,0.11952589,-0.27131,0.16892752,-0.10403118,0.09722713,-0.27218986,-0.052431196,-0.085618876,-0.014580591,0.031751934,0.07408735,0.24087241,0.019650871,-0.08773777,0.16383076,-0.062336795,-0.27167907,-0.005324357,0.33297524,-0.15837048,0.09669645,-0.13954107,-0.094197355,-0.059378386,0.085249,0.18335418,-0.038448215,-0.10026697,0.13432403,-0.15578972,0.012449702,-0.23561053,-0.24921098,0.17464522,-0.26095897,-0.19529507,0.088545285,0.35615894,0.16267036,-0.006770953,0.019456157,0.28484583,-0.15319258,0.19904727,0.35304892,0.28039283,0.24130116,0.18255524,-0.12021848,0.20354678,0.16918741,-0.30444506,0.21937896,0.22347845,-0.27319202,0.074275754,-0.10192971,-0.17322902,0.17606631,0.05005582,-0.09651696,-0.053496182,0.17907442,0.20891777,-0.15192167,0.04267146,-0.10656598,-0.17653617,0.31575292,0.0637904,-0.15908012,-0.11170105,-0.018186936,0.067598924,-0.1647689,0.12811989,0.27240932,0.09999753,-0.1499122,-0.1469693,-0.21381456,-0.029191926,0.02877016,-0.33246413,-0.09103337,0.16502406,0.061834585,0.07472677,-0.16760764,-0.116987765,0.07411945,-0.30721903,-0.03125632,0.097452,0.111958936,-0.09555811,-0.08154519,-0.11799669,0.046748906,0.16907333,0.12777291,0.13307592,-0.031876385,-0.068001546,0.14102407,0.09999598,-0.25432083,-0.15443417,0.16019538,-0.21132377,-0.24396363,-0.13153088,-0.14358096,0.19922015,0.102104135,0.12940235,0.20536466,-0.22460736,-0.117735974,-0.23367612,-0.19860357,0.27932695,0.034541756,0.14788681,0.11376026,0.16187215,-0.17678428,0.13666895,0.117795475,0.22593498,-0.15523112,-0.12293591,-0.15171716,0.21339183,0.1866177,0.07415403,-0.22035411,-0.23978446,0.21664171,-0.15745774,0.18404488,-0.077447824,0.18270431,0.20668775,-0.015932852,0.13101007,-0.16007297,-0.0051234923,-0.20380056,-0.030017994,0.017345278,0.159321,-0.028267216,-0.02985522,-0.1827475,-0.038772356,0.051322196,0.1829912,0.15955329,0.24816354,0.04417222,-0.04600008,-0.0635228,-0.023876775,-0.100206956,-2.7552484e-05,0.1433634,-0.09926636,0.058433454,-0.06940616,0.17169246,-0.08226002,0.2075872,-0.12102374,0.24083167,-0.049417723,-0.004327317,0.14821342,-0.13758658,0.3263068,0.11391636,-0.01891206,-0.051846545,0.23920481,-0.0065491833,0.08469869,0.21106423,0.28804615,0.29912362,0.21675856,0.18521048,0.08984928,0.035354678,-0.2412009,0.46543056,-0.07261904,0.18160072,0.12506123,0.2413501,-0.034926403,-0.12754942,0.20348838,0.3094894,0.018295301,0.03738379,0.0034442896,0.2992495,-0.051239315,-0.018969819,0.2675557,0.23999394,0.059933778,-0.20734584,0.05593906,-0.122978136,-0.08545289,-0.18297094,-0.17488547,-0.03435307,0.31114128,0.23393384,-0.04383614,0.11854274,-0.2641904,0.08815253,0.020344278,0.20557997,0.056347854,-0.17880209,0.16962859,-0.15354648,0.21533558,-0.041925665,-0.16002351,0.40627882,-0.13302663,0.12827402,0.10023011,0.14147507,0.03224992,-0.10460932,-0.022508224,0.10863527,-0.15898715,-0.051718652,-0.056526985,-0.0117678605,0.06940925,0.04495364,-0.14121293,-0.16256739,-0.14957169,0.07320839,-0.05501415,0.16570543,-0.017794734,-0.012617992,0.11076669,-0.25320455,0.15970898,0.11554493,0.20951323,0.20069525,0.23063718,-0.091386795,0.26996797,-0.15802798,-0.0657637,-0.31996262,0.0029169729,0.09646918,-0.01581089,-0.007957459,0.090212,-0.20983806,-0.16110383,-0.18922217,0.18016605,-0.1678189,0.015216533,0.20839,0.08728681,-0.122503534,0.018304298,0.07349506,0.06532758,0.18650612,0.22452036,0.13210155,-0.08668753,0.036675274,0.191489,-0.028404014,0.25937673,0.037159823,-0.07257755,0.048658665,0.10158095,0.2022958,0.17508553,0.18055664,0.17271121,-0.06365645,0.118418254,0.05088244,0.23634067,0.19527392,0.12499075,-0.087574884,0.26049513,0.19275457,0.08575102,-0.023738312,0.24789359,0.028739296,-0.046293423,0.21988118,0.3315643,-0.3778467,0.0034478505,0.28541723,0.1782594,-0.10679511,-0.20787182,0.3046033,0.068165086,-0.032126307,0.20516816,-0.1673646,0.15148932,0.0064367005,-0.07963074,0.03407573,0.15378368,-0.17073514,-0.23045231,0.20714572,0.19278075,-0.28788862,-0.013542027,0.17048866,0.079727426,-0.08182946,0.25074318,0.25838125,0.1562844,-0.2720477,-0.17997676,0.1748194,0.27287868,-0.11943121,-0.14312018,0.24303007,-0.08101252,-0.09705955,-0.27094492,0.26236138,0.280719,-0.38204902,-0.22381932,-0.055039052,-0.11725264,-0.23094584,-0.11564299,-0.059783775,0.08731455,-0.3946832,0.07379341,0.26951218,0.19394259,0.067281224,-0.23462474,0.07753064,0.17906676,-0.12305173,-0.00059313775,-0.08239357,-0.089196034,0.17812227,-0.24033342,0.20696162,0.19388865,-0.22465271,0.15455413,0.2652274,0.26597008,-0.13939658,0.023863753,0.24229172,-0.11232511,-0.22802636,-0.22892766,0.26008186,-0.067935295,0.116263926,0.04213078,-0.13843517,-0.05338979,0.14200349,0.1986697,-0.17982194,-0.0025594449,0.15076554,-0.108394854,-0.21280445,-0.13496299,-0.3137787,-0.054131154,-0.065679334,0.24492063,-0.032512326,-0.1929615,0.08000025,0.10582436,-0.01430826,-0.24225539,0.24483591,-0.1649333,-0.29503432,0.053239908,-0.11056462,-0.0054192785,-0.2502415,-0.16567478,0.20917815,-0.12872162,-0.32454094,-0.027933601,-0.1520791,0.17465533,-0.2391328,0.21199901,-0.034526825,0.21699922,-0.24482767,0.022362927,-0.17787495,0.18117894,-0.0979362,-0.14772098,-0.058911227,0.12462612,-0.41891402,-0.03288169,0.013952119,0.18642505,-0.09702694,-0.13852918,0.12632434,-0.05516462,-0.23611191,0.053944822,-0.006083797,0.045883972,-0.17147082,0.0859453,-0.073351845,-0.10847938,-0.35214642,0.13919158,-0.1508048,0.0907198,-0.09421559,-0.20029685,0.16644064,0.22305837,-0.3115414,-0.20944846,-0.24909045,0.092797995,0.31150863,0.12134883,0.21163747,0.024651928,-0.04130372,0.27598894,-0.074038275};

float fc1_bias[N_FC1_BIAS] = {-0.016478444,0.022012372,0.03116339,-0.0077073732,0.053797115,-0.005397323,-0.005013669,0.055735115,0.06367809,0.044378243};

float fc2_wt[N_FC2_WT] = {-0.025829233,0.29574955,0.14052752,-0.25249135,0.6228097,-0.5011645,-0.07853356,0.2623919,-0.30639306,0.019833976,-0.21372963,-0.44505224,0.022953585,-0.14385436,-0.41606593,0.24119729,-0.66320443,0.52096516,0.38941556,0.6843425,-0.05429187,-0.592045,0.49851704,0.0052979263,-0.05325235,0.5145276,0.31578636,-0.3288766,0.56516916,-0.5242129,0.408332,0.18644454,-0.09741237,0.37334174,-0.5353339,0.011288521,0.2088164,-0.6636568,-0.51550674,-0.33044073,-0.49592605,-0.64307743,-0.11207793,0.64933306,-0.570308,0.3884406,0.28326347,0.51666653,-0.3546964,-0.46102214};

float fc2_bias[N_FC2_BIAS] = {0.06524652,-0.033687767,-0.030993996,-0.04021182,0.009325951};

